#define GATE_WEIGHTS {0.0,0.0,0.09470538049936295,-0.09470538049936295,-0.09470538049936295,-0.09470538049936295,0.0,-0.28411614894866943,-0.09470538049936295,-0.1894107609987259,-0.09470538049936295,0.09470538049936295,-0.09470538049936295,-0.1894107609987259,0.09470538049936295,0.0,-0.1894107609987259,0.0,0.0,-0.1894107609987259,0.0,0.09470538049936295,0.0,-0.1894107609987259,-0.09470538049936295,0.0,-0.1894107609987259,0.0,-0.09470538049936295,-0.09470538049936295,0.0,-0.09470538049936295,-0.28411614894866943,-0.09470538049936295,-0.09470538049936295,0.0,-0.09470538049936295,0.0,0.1894107609987259,-0.1894107609987259,0.09470538049936295,-0.28411614894866943,0.28411614894866943,-0.09470538049936295,0.09470538049936295,-0.28411614894866943,0.3788215219974518,0.28411614894866943,-0.3788215219974518,-0.1894107609987259,-0.1894107609987259,-0.09470538049936295,0.0,-0.1894107609987259,0.28411614894866943,-0.1894107609987259,-0.1894107609987259,0.0,-0.28411614894866943,-0.28411614894866943,-0.09470538049936295,-0.09470538049936295,0.09470538049936295,-0.28411614894866943,-0.09470538049936295,0.47352689504623413,-0.09470538049936295,0.09470538049936295,0.0,-0.5682322978973389,0.28411614894866943,-0.09470538049936295,0.28411614894866943,0.09470538049936295,0.0,-0.1894107609987259,-0.1894107609987259,0.28411614894866943,-0.09470538049936295,0.09470538049936295,0.5682322978973389,-0.28411614894866943,-0.1894107609987259,-0.1894107609987259,0.0,-0.28411614894866943,-0.3788215219974518,0.09470538049936295,0.09470538049936295,0.3788215219974518,-0.09470538049936295,-0.1894107609987259,0.0,-0.1894107609987259,-0.09470538049936295,0.09470538049936295,0.3788215219974518,0.47352689504623413,0.09470538049936295,0.28411614894866943,-0.28411614894866943,0.0,0.0,-0.3788215219974518,0.0,-0.09470538049936295,-0.47352689504623413,0.1894107609987259,-0.47352689504623413,0.47352689504623413,-0.28411614894866943,0.09470538049936295,0.1894107609987259,0.1894107609987259,0.0,0.1894107609987259,-0.3788215219974518,0.0,-0.1894107609987259,0.3788215219974518,0.6629376411437988,-0.28411614894866943,0.3788215219974518,0.09470538049936295,0.09470538049936295,-0.47352689504623413,-0.47352689504623413,-0.3788215219974518,0.28411614894866943,-0.6629376411437988,-0.09470538049936295,-0.09470538049936295,0.09470538049936295,0.28411614894866943,-0.1894107609987259,0.3788215219974518,-0.1894107609987259,0.0,0.6629376411437988,0.5682322978973389,0.1894107609987259,-0.1894107609987259,0.0,0.3788215219974518,0.09470538049936295,0.0,-0.28411614894866943,0.3788215219974518,0.3788215219974518,0.0,0.1894107609987259,0.1894107609987259,-0.6629376411437988,0.0,0.28411614894866943,0.47352689504623413,-0.5682322978973389,0.5682322978973389,-0.3788215219974518,0.1894107609987259,-0.1894107609987259,0.6629376411437988,0.1894107609987259,-0.09470538049936295,-0.6629376411437988,-0.09470538049936295,0.09470538049936295,0.1894107609987259,0.1894107609987259,0.09470538049936295,-0.09470538049936295,-0.09470538049936295,0.1894107609987259,-0.1894107609987259,0.09470538049936295,0.6629376411437988,0.09470538049936295,0.3788215219974518,0.1894107609987259,0.0,0.5682322978973389,-0.09470538049936295,0.1894107609987259,-0.47352689504623413,0.1894107609987259,-0.09470538049936295,0.09470538049936295,0.1894107609987259,0.1894107609987259,0.3788215219974518,0.28411614894866943,-0.28411614894866943,0.1894107609987259,0.09470538049936295,0.28411614894866943,-0.28411614894866943,-0.1894107609987259,0.1894107609987259,-0.5682322978973389,0.6629376411437988,0.3788215219974518,-0.09470538049936295,-0.1894107609987259,0.0,0.6629376411437988,0.6629376411437988,-0.47352689504623413,-0.6629376411437988,0.1894107609987259,0.6629376411437988,0.47352689504623413,0.0,-0.3788215219974518,0.28411614894866943,-0.1894107609987259,-0.1894107609987259,0.0,0.1894107609987259,0.0,0.1894107609987259,0.5682322978973389,0.1894107609987259,0.1894107609987259,0.3788215219974518,0.0,-0.09470538049936295,0.3788215219974518,0.09470538049936295,0.28411614894866943,0.5682322978973389,-0.6629376411437988,0.09470538049936295,0.09470538049936295,-0.1894107609987259,0.1894107609987259,0.3788215219974518,0.5682322978973389,0.5682322978973389,0.09470538049936295,0.1894107609987259,0.09470538049936295,-0.1894107609987259,-0.1894107609987259,0.47352689504623413,-0.3788215219974518,0.3788215219974518,-0.09470538049936295,-0.09470538049936295,0.28411614894866943,-0.1894107609987259,0.28411614894866943,-0.09470538049936295,0.1894107609987259,-0.1894107609987259,-0.09470538049936295,0.1894107609987259,-0.28411614894866943,-0.47352689504623413,-0.1894107609987259,0.1894107609987259,0.3788215219974518,-0.28411614894866943,-0.1894107609987259,-0.6629376411437988,0.1894107609987259,0.3788215219974518,0.28411614894866943,-0.6629376411437988,-0.1894107609987259,-0.6629376411437988,0.6629376411437988,-0.09470538049936295,-0.5682322978973389,-0.28411614894866943,0.1894107609987259,0.0,0.09470538049936295,-0.1894107609987259,0.09470538049936295,-0.1894107609987259,-0.3788215219974518,0.1894107609987259,0.47352689504623413,-0.47352689504623413,0.0,0.0,0.47352689504623413,-0.28411614894866943,-0.28411614894866943,0.5682322978973389,0.1894107609987259,-0.1894107609987259,-0.47352689504623413,-0.09470538049936295,0.0,0.0,0.47352689504623413,0.09470538049936295,0.09470538049936295,0.0,-0.1894107609987259,0.28411614894866943,-0.6629376411437988,0.09470538049936295,-0.09470538049936295,0.28411614894866943,0.28411614894866943,-0.09470538049936295,-0.09470538049936295,-0.28411614894866943,-0.09470538049936295,0.0,0.6629376411437988,0.0,-0.1894107609987259,-0.3788215219974518,0.0,0.09470538049936295,0.1894107609987259,0.0,0.4940750002861023,0.32938334345817566,0.8234583735466003,0.4940750002861023,-0.6587666869163513,-0.16469167172908783,1.1528416872024536,0.32938334345817566,-0.16469167172908783,0.0,-0.32938334345817566,-0.32938334345817566,0.16469167172908783,0.9881500005722046,-0.32938334345817566,0.6587666869163513,1.1528416872024536,0.0,0.0,-0.16469167172908783,-0.4940750002861023,0.16469167172908783,0.0,0.4940750002861023,-0.32938334345817566,-0.32938334345817566,0.4940750002861023,0.8234583735466003,0.32938334345817566,-0.16469167172908783,-0.16469167172908783,0.16469167172908783,0.16469167172908783,-0.6587666869163513,-0.32938334345817566,-0.16469167172908783,0.32938334345817566,-0.6587666869163513,-0.6587666869163513,-0.16469167172908783,0.32938334345817566,0.4940750002861023,-0.6587666869163513,-0.16469167172908783,0.6587666869163513,0.32938334345817566,-0.8234583735466003,0.0,0.9881500005722046,-0.8234583735466003,-0.6587666869163513,0.4940750002861023,0.6587666869163513,-0.16469167172908783,0.0,1.1528416872024536,0.8234583735466003,0.6587666869163513,0.8234583735466003,0.9881500005722046,-0.16469167172908783,0.6587666869163513,-0.32938334345817566,0.0,-0.4940750002861023,-0.32938334345817566,0.0,-0.16469167172908783,-0.4940750002861023,-1.1528416872024536,0.16469167172908783,-0.8234583735466003,-0.8234583735466003,-0.4940750002861023,-0.32938334345817566,0.4940750002861023,-0.32938334345817566,0.0,-0.16469167172908783,0.32938334345817566,-0.9881500005722046,-0.8234583735466003,0.16469167172908783,-1.1528416872024536,0.32938334345817566,0.16469167172908783,0.6587666869163513,-0.8234583735466003,-0.8234583735466003,-0.32938334345817566,-0.9881500005722046,-0.16469167172908783,0.4940750002861023,-0.6587666869163513,0.9881500005722046,-0.32938334345817566,-0.4940750002861023,0.0,0.0,-1.1528416872024536,0.16469167172908783,-1.1528416872024536,-0.16469167172908783,-0.16469167172908783,0.0,-0.32938334345817566,-0.32938334345817566,0.0,-0.4940750002861023,-0.32938334345817566,-0.4940750002861023,0.0,-0.6587666869163513,-0.32938334345817566,-0.32938334345817566,-0.8234583735466003,0.4940750002861023,-0.32938334345817566,-1.1528416872024536,-0.4940750002861023,-0.32938334345817566,0.16469167172908783,-0.4940750002861023,-0.32938334345817566,-0.4940750002861023,-0.9881500005722046,-0.4940750002861023,-0.16469167172908783,-0.32938334345817566,0.32938334345817566,-0.32938334345817566,-0.32938334345817566,1.1528416872024536,0.16469167172908783,-0.4940750002861023,-0.32938334345817566,0.32938334345817566,0.16469167172908783,0.32938334345817566,-0.4940750002861023,-0.16469167172908783,0.32938334345817566,0.0,-0.4940750002861023,0.16469167172908783,0.6587666869163513,0.32938334345817566,0.16469167172908783,0.8234583735466003,0.6587666869163513,-0.16469167172908783,0.16469167172908783,-1.1528416872024536,-0.4940750002861023,-0.4940750002861023,0.0,0.6587666869163513,0.4940750002861023,0.0,-0.8234583735466003,-0.32938334345817566,-0.4940750002861023,0.6587666869163513,0.6587666869163513,0.16469167172908783,-1.1528416872024536,-0.16469167172908783,0.16469167172908783,0.16469167172908783,0.6587666869163513,-0.4940750002861023,0.32938334345817566,-0.32938334345817566,0.16469167172908783,0.16469167172908783,0.0,-0.16469167172908783,-0.8234583735466003,-0.16469167172908783,0.32938334345817566,0.4940750002861023,-1.1528416872024536,0.4940750002861023,1.1528416872024536,0.32938334345817566,0.8234583735466003,0.6587666869163513,0.32938334345817566,-0.8234583735466003,1.1528416872024536,-0.32938334345817566,0.8234583735466003,-0.4940750002861023,-0.16469167172908783,-0.16469167172908783,0.16469167172908783,0.32938334345817566,-0.16469167172908783,0.4940750002861023,-0.32938334345817566,-0.4940750002861023,-0.16469167172908783,-0.32938334345817566,0.0,0.0,0.4940750002861023,0.0,0.4940750002861023,0.4940750002861023,-0.4940750002861023,-0.32938334345817566,0.6587666869163513,0.0,-0.6587666869163513,0.16469167172908783,0.0,-0.16469167172908783,0.16469167172908783,-0.32938334345817566,-0.6587666869163513,-0.4940750002861023,0.4940750002861023,-0.32938334345817566,-0.4940750002861023,-0.8234583735466003,0.16469167172908783,0.0,0.6587666869163513,0.0,0.16469167172908783,0.16469167172908783,0.0,0.0,0.16469167172908783,-0.32938334345817566,-0.16469167172908783,-0.4940750002861023,0.32938334345817566,0.8234583735466003,0.0,0.16469167172908783,0.16469167172908783,-0.6587666869163513,0.6587666869163513,0.32938334345817566,0.0,0.6587666869163513,-0.16469167172908783,0.16469167172908783,-0.32938334345817566,0.4940750002861023,-1.1528416872024536,-0.6587666869163513,0.6587666869163513,-0.4940750002861023,-0.6587666869163513,0.16469167172908783,0.32938334345817566,0.4940750002861023,0.16469167172908783,-0.16469167172908783,0.32938334345817566,0.0,0.0,0.16469167172908783,0.32938334345817566,-0.4940750002861023,0.32938334345817566,0.0,0.16469167172908783,-0.16469167172908783,0.32938334345817566,0.16469167172908783,0.0,-0.32938334345817566,0.32938334345817566,0.9881500005722046,0.0,0.0,0.32938334345817566,0.9881500005722046,0.9881500005722046,0.8234583735466003,-0.16469167172908783,-0.16469167172908783,-0.32938334345817566,0.4940750002861023,-0.16469167172908783,-0.6587666869163513,-0.32938334345817566,0.4940750002861023,-0.6587666869163513,-0.4940750002861023,-0.16469167172908783,0.4940750002861023,-0.32938334345817566,-0.32938334345817566,-0.9881500005722046,-0.32938334345817566,0.0,0.16469167172908783,-0.6587666869163513,0.16469167172908783,0.0,-0.4940750002861023,0.0,-0.8234583735466003,-0.4940750002861023,-0.9881500005722046,0.16469167172908783,-0.8234583735466003,-1.1528416872024536,-0.4940750002861023,-1.1528416872024536,-0.32938334345817566,-0.4940750002861023,-0.8234583735466003,-0.16469167172908783,-0.4940750002861023,-0.4940750002861023,0.16469167172908783,0.0,0.0,0.32938334345817566,0.0,-0.16469167172908783,0.16469167172908783,-0.16469167172908783,0.6587666869163513,-0.6587666869163513,-0.32938334345817566,-0.6587666869163513,0.4940750002861023,-0.16469167172908783,0.6587666869163513,1.1528416872024536,0.0,-0.16469167172908783,-0.32938334345817566,0.0,-0.16469167172908783,0.0,-0.32938334345817566,-0.32938334345817566,-0.16469167172908783,-0.16469167172908783,-0.32938334345817566,-0.16469167172908783,0.9881500005722046,-0.6587666869163513,0.6587666869163513,-0.6587666869163513,0.9881500005722046,-0.16469167172908783,0.16469167172908783,0.6587666869163513,0.4940750002861023,-0.8234583735466003,0.16469167172908783,-0.16469167172908783,0.16469167172908783,1.1528416872024536,-0.16469167172908783,0.6587666869163513,-0.4940750002861023,-0.16469167172908783,-0.4940750002861023,0.16469167172908783,0.4940750002861023,0.16469167172908783,0.6587666869163513,0.6587666869163513,-0.16469167172908783,-0.4940750002861023,1.1528416872024536,0.16469167172908783,-0.16469167172908783,-0.6587666869163513,0.4940750002861023,0.0,0.32938334345817566,0.8234583735466003,0.6587666869163513,-0.16469167172908783,-0.16469167172908783,-0.16469167172908783,0.16469167172908783,-0.8234583735466003,-0.32938334345817566,-0.6587666869163513,0.9881500005722046,-0.16469167172908783,-0.8234583735466003,-0.16469167172908783,-0.16469167172908783,-0.6587666869163513,-0.32938334345817566,-0.8234583735466003,0.0,0.6587666869163513,-0.4940750002861023,-0.6587666869163513,-0.16469167172908783,-1.1528416872024536,0.4940750002861023,0.0,-0.16469167172908783,-0.6587666869163513,-0.16469167172908783,-0.32938334345817566,-0.8234583735466003,-0.4940750002861023,0.8234583735466003,-0.9881500005722046,0.6587666869163513,-0.8234583735466003,-0.16469167172908783,-0.16469167172908783,0.32938334345817566,0.16469167172908783,-0.32938334345817566,-0.32938334345817566,0.9881500005722046,-0.8234583735466003,-0.6587666869163513,0.16469167172908783,-0.16469167172908783,0.4940750002861023,0.6587666869163513,0.32938334345817566,-0.16469167172908783,-0.32938334345817566,0.16469167172908783,0.6587666869163513,0.32938334345817566,-0.6587666869163513,-0.32938334345817566,0.6587666869163513,-0.16469167172908783,-1.1528416872024536,-0.6587666869163513,-0.4940750002861023,-1.1528416872024536,0.4940750002861023,-0.32938334345817566,-0.9881500005722046,0.16469167172908783,-0.6587666869163513,-0.16469167172908783,0.32938334345817566,0.32938334345817566,0.4940750002861023,-0.6587666869163513,0.16469167172908783,-0.6587666869163513,0.4940750002861023,-0.6587666869163513,-0.4940750002861023,-0.4940750002861023,0.8234583735466003,0.0,0.6587666869163513,-0.16469167172908783,0.0,-0.16469167172908783,-0.16469167172908783,0.16469167172908783,0.32938334345817566,0.16469167172908783,0.32938334345817566,0.32938334345817566,0.0,0.16469167172908783,0.6587666869163513,0.9881500005722046,0.0,0.0,0.6587666869163513,0.0,0.16469167172908783,0.16469167172908783,-0.32938334345817566,0.16469167172908783,-0.16469167172908783,0.4940750002861023,0.32938334345817566,-0.4940750002861023,0.16469167172908783,0.16469167172908783,0.32938334345817566,0.8234583735466003,-0.32938334345817566,0.8234583735466003,0.16469167172908783,0.16469167172908783,0.0,0.0,0.6587666869163513,0.16469167172908783,-0.8234583735466003,-0.4940750002861023,0.0,-0.32938334345817566,-0.16469167172908783,0.0,-0.32938334345817566,0.8234583735466003,0.16469167172908783,0.0,-0.16469167172908783,0.0,0.6587666869163513,}
#define GATE_BIAS {0.6461242437362671,0.8219645619392395,0.9691864252090454,0.47028395533561707,0.47028395533561707,0.9405679106712341,0.14722183346748352,0.6461242437362671,0.17584028840065002,0.6175057888031006,0.0,0.49890241026878357,0.6175057888031006,0.49890241026878357,-0.6461242437362671,-0.14722183346748352,2.085594654083252,-0.11860337853431702,0.49890241026878357,2.261435031890869,0.47028395533561707,0.14722183346748352,0.29444366693496704,1.2922484874725342,1.1164082288742065,0.47028395533561707,0.49890241026878357,1.2636300325393677,-0.17584028840065002,0.17584028840065002,-0.49890241026878357,0.6175057888031006,}
#define CANDIDATE_WEIGHTS {0.09470538049936295,0.0,0.0,-0.09470538049936295,0.09470538049936295,-0.09470538049936295,0.0,0.0,0.09470538049936295,-0.09470538049936295,0.0,0.09470538049936295,0.09470538049936295,0.0,-0.09470538049936295,0.1894107609987259,0.1894107609987259,0.28411614894866943,0.0,0.0,0.1894107609987259,-0.1894107609987259,-0.28411614894866943,0.09470538049936295,0.28411614894866943,0.0,0.0,0.0,0.0,0.0,-0.09470538049936295,0.1894107609987259,-0.28411614894866943,-0.28411614894866943,-0.1894107609987259,-0.09470538049936295,-0.09470538049936295,-0.1894107609987259,0.0,0.1894107609987259,0.0,0.0,-0.09470538049936295,0.0,-0.28411614894866943,0.28411614894866943,0.09470538049936295,0.0,0.28411614894866943,0.1894107609987259,0.0,-0.09470538049936295,0.1894107609987259,0.09470538049936295,0.28411614894866943,-0.28411614894866943,-0.3788215219974518,0.09470538049936295,0.0,-0.3788215219974518,-0.28411614894866943,0.3788215219974518,-0.09470538049936295,0.09470538049936295,0.09470538049936295,0.1894107609987259,0.1894107609987259,0.09470538049936295,-0.3788215219974518,0.1894107609987259,-0.1894107609987259,-0.09470538049936295,0.0,-0.1894107609987259,0.0,-0.1894107609987259,0.47352689504623413,-0.47352689504623413,-0.09470538049936295,-0.1894107609987259,-0.09470538049936295,0.0,-0.09470538049936295,0.0,-0.28411614894866943,0.09470538049936295,0.09470538049936295,-0.09470538049936295,0.0,0.09470538049936295,-0.1894107609987259,-0.09470538049936295,0.1894107609987259,-0.09470538049936295,-0.28411614894866943,-0.09470538049936295,-0.09470538049936295,0.09470538049936295,0.1894107609987259,0.1894107609987259,0.0,0.28411614894866943,0.09470538049936295,-0.1894107609987259,-0.28411614894866943,-0.09470538049936295,-0.09470538049936295,0.1894107609987259,0.3788215219974518,0.28411614894866943,0.09470538049936295,0.09470538049936295,0.1894107609987259,0.0,0.3788215219974518,0.1894107609987259,0.09470538049936295,0.09470538049936295,-0.28411614894866943,0.0,0.47352689504623413,-0.09470538049936295,0.1894107609987259,0.3788215219974518,0.09470538049936295,-0.09470538049936295,-0.1894107609987259,0.0,-0.28411614894866943,-0.28411614894866943,0.0,0.0,-0.28411614894866943,0.0,-0.1894107609987259,0.1894107609987259,-0.28411614894866943,0.0,0.09470538049936295,0.28411614894866943,-0.09470538049936295,-0.09470538049936295,0.28411614894866943,-0.28411614894866943,-0.09470538049936295,-0.28411614894866943,-0.09470538049936295,0.1894107609987259,-0.1894107609987259,0.0,0.1894107609987259,0.3788215219974518,0.0,0.09470538049936295,-0.47352689504623413,0.0,-0.09470538049936295,0.09470538049936295,0.5682322978973389,0.0,0.0,0.17165914177894592,-0.17165914177894592,-1.2016140222549438,-0.6866365671157837,-0.34331828355789185,0.17165914177894592,-0.17165914177894592,0.34331828355789185,-0.17165914177894592,0.6866365671157837,-0.17165914177894592,-0.17165914177894592,1.2016140222549438,-0.17165914177894592,-0.8582956790924072,-0.8582956790924072,-0.6866365671157837,-0.34331828355789185,0.17165914177894592,-0.6866365671157837,-0.17165914177894592,0.34331828355789185,0.5149774551391602,1.0299549102783203,0.0,0.17165914177894592,-0.8582956790924072,-0.17165914177894592,-0.6866365671157837,-0.34331828355789185,-1.2016140222549438,0.0,0.34331828355789185,0.5149774551391602,-0.17165914177894592,0.6866365671157837,-0.8582956790924072,0.6866365671157837,0.5149774551391602,0.6866365671157837,-0.17165914177894592,0.5149774551391602,0.5149774551391602,0.8582956790924072,0.34331828355789185,0.17165914177894592,-0.34331828355789185,-0.5149774551391602,-0.5149774551391602,0.6866365671157837,0.5149774551391602,0.34331828355789185,-1.2016140222549438,-0.5149774551391602,0.34331828355789185,-0.17165914177894592,0.6866365671157837,0.17165914177894592,0.0,0.6866365671157837,0.17165914177894592,-0.8582956790924072,0.5149774551391602,-0.6866365671157837,0.17165914177894592,0.0,0.6866365671157837,0.5149774551391602,0.34331828355789185,0.0,-0.34331828355789185,0.6866365671157837,-1.0299549102783203,-0.8582956790924072,0.17165914177894592,0.17165914177894592,-0.34331828355789185,0.17165914177894592,-0.6866365671157837,0.17165914177894592,0.5149774551391602,-0.5149774551391602,-1.0299549102783203,-0.8582956790924072,0.0,0.8582956790924072,1.2016140222549438,-0.17165914177894592,0.6866365671157837,1.2016140222549438,-0.6866365671157837,-0.8582956790924072,-0.8582956790924072,0.6866365671157837,0.0,0.8582956790924072,0.6866365671157837,0.17165914177894592,-0.6866365671157837,0.6866365671157837,-0.5149774551391602,0.0,0.8582956790924072,0.17165914177894592,-0.8582956790924072,0.0,0.34331828355789185,0.34331828355789185,0.5149774551391602,0.0,-0.5149774551391602,-0.17165914177894592,-0.17165914177894592,0.17165914177894592,0.5149774551391602,0.0,0.17165914177894592,0.8582956790924072,0.34331828355789185,0.6866365671157837,0.5149774551391602,0.5149774551391602,0.17165914177894592,0.5149774551391602,-1.0299549102783203,0.5149774551391602,-1.0299549102783203,0.0,0.0,-1.0299549102783203,0.34331828355789185,-0.5149774551391602,0.5149774551391602,0.34331828355789185,0.17165914177894592,0.0,-0.34331828355789185,0.17165914177894592,0.17165914177894592,-0.34331828355789185,-0.34331828355789185,1.0299549102783203,-1.2016140222549438,0.5149774551391602,-1.2016140222549438,1.2016140222549438,-0.17165914177894592,0.8582956790924072,-1.2016140222549438,-0.17165914177894592,-0.5149774551391602,-0.34331828355789185,1.0299549102783203,0.8582956790924072,0.0,0.5149774551391602,0.17165914177894592,-0.5149774551391602,0.8582956790924072,-0.34331828355789185,-0.17165914177894592,-0.5149774551391602,-0.6866365671157837,-0.34331828355789185,-0.6866365671157837,0.8582956790924072,0.17165914177894592,0.17165914177894592,0.34331828355789185,0.8582956790924072,-0.34331828355789185,-0.17165914177894592,-0.17165914177894592,-0.17165914177894592,0.17165914177894592,0.34331828355789185,0.8582956790924072,-0.17165914177894592,-0.34331828355789185,-0.5149774551391602,0.5149774551391602,0.0,-1.0299549102783203,-0.34331828355789185,0.0,-1.0299549102783203,-0.5149774551391602,-0.5149774551391602,0.8582956790924072,-0.17165914177894592,-0.8582956790924072,-0.17165914177894592,0.0,-0.8582956790924072,-0.17165914177894592,0.34331828355789185,-0.34331828355789185,0.8582956790924072,0.8582956790924072,1.0299549102783203,0.6866365671157837,0.34331828355789185,0.5149774551391602,0.0,0.34331828355789185,-0.17165914177894592,-0.8582956790924072,0.34331828355789185,0.34331828355789185,0.6866365671157837,0.0,0.6866365671157837,-0.17165914177894592,-0.17165914177894592,0.17165914177894592,1.0299549102783203,-1.0299549102783203,-1.0299549102783203,0.5149774551391602,0.34331828355789185,0.17165914177894592,0.0,0.0,0.8582956790924072,0.34331828355789185,0.0,-0.8582956790924072,0.17165914177894592,0.17165914177894592,0.5149774551391602,-0.34331828355789185,0.0,0.0,0.5149774551391602,-0.17165914177894592,0.17165914177894592,0.6866365671157837,0.17165914177894592,-0.17165914177894592,-0.5149774551391602,0.5149774551391602,0.0,0.17165914177894592,-0.5149774551391602,0.5149774551391602,1.0299549102783203,0.5149774551391602,-0.5149774551391602,0.5149774551391602,0.34331828355789185,0.0,0.0,-0.6866365671157837,0.34331828355789185,0.5149774551391602,}
#define CANDIDATE_BIAS {-0.3305661082267761,0.7222470045089722,0.6611322164535522,-0.9805681705474854,-0.3305661082267761,-0.14722183346748352,0.20833659172058105,-0.2333289086818695,-0.14722183346748352,-0.6000174283981323,-0.39168086647987366,-0.4527956247329712,-0.7472392916679382,-0.7222470045089722,0.8944611549377441,-0.24445903301239014,}
#define LAST_WEIGHTS {-0.6641212701797485,0.9961819052696228,0.33206063508987427,-0.9961819052696228,0.33206063508987427,-0.9961819052696228,0.6641212701797485,0.0,0.33206063508987427,0.0,1.328242540359497,0.0,0.0,-0.33206063508987427,0.0,1.328242540359497,-0.9961819052696228,-0.9961819052696228,1.9923638105392456,-0.33206063508987427,-0.33206063508987427,0.33206063508987427,-0.9961819052696228,1.328242540359497,-0.6641212701797485,-0.6641212701797485,0.0,0.0,0.0,0.0,0.6641212701797485,0.33206063508987427,-0.33206063508987427,0.6641212701797485,-0.9961819052696228,0.0,0.33206063508987427,1.6603031158447266,-0.33206063508987427,-1.328242540359497,-2.3244245052337646,0.33206063508987427,1.6603031158447266,0.6641212701797485,-1.6603031158447266,2.3244245052337646,-0.9961819052696228,0.6641212701797485,-0.9961819052696228,-0.9961819052696228,1.9923638105392456,-0.9961819052696228,2.3244245052337646,-0.9961819052696228,-1.328242540359497,-0.9961819052696228,0.33206063508987427,-0.33206063508987427,-0.33206063508987427,1.328242540359497,0.9961819052696228,0.0,0.0,0.33206063508987427,-0.33206063508987427,-0.33206063508987427,0.9961819052696228,-0.9961819052696228,-0.6641212701797485,0.9961819052696228,0.33206063508987427,0.0,-0.33206063508987427,0.0,0.0,1.9923638105392456,-0.9961819052696228,-1.328242540359497,0.33206063508987427,1.328242540359497,}
#define LAST_BIAS {0.39937251806259155,-0.29952937364578247,-0.49921566247940063,0.49921566247940063,0.19968625903129578,}
